{"learner":{"attributes":{"niter":"49"},"feature_names":[],"feature_types":[],"gradient_booster":{"model":{"gbtree_model_param":{"num_parallel_tree":"1","num_trees":"50","size_leaf_vector":"0"},"tree_info":[0,0,0,0,0,0,0,0,0,0,0,0,0,0,0,0,0,0,0,0,0,0,0,0,0,0,0,0,0,0,0,0,0,0,0,0,0,0,0,0,0,0,0,0,0,0,0,0,0,0],"trees":[{"base_weights":[-0E0,4.6464646E-1,-5.6E-1,6.0465115E-1,-0E0,-0E0,6.3414633E-1,-4.255319E-2,-0E0],"categories":[],"categories_nodes":[],"categories_segments":[],"categories_sizes":[],"default_left":[1,1,0,1,1,0,0,0,0],"id":0,"left_children":[1,3,-1,5,7,-1,-1,-1,-1],"loss_changes":[1.1223434E1,2.5170307E0,0E0,3.8343716E-1,2.1276595E-2,0E0,0E0,0E0,0E0],"parents":[2147483647,0,0,1,1,3,3,4,4],"right_children":[2,4,-1,6,8,-1,-1,-1,-1],"split_conditions":[8.7726045E-1,5E-1,-2.8E-2,5.7E-2,4.012E0,-0E0,3.1707317E-2,-2.1276595E-3,-0E0],"split_indices":[4,11,0,8,9,0,0,0,0],"split_type":[0,0,0,0,0,0,0,0,0],"sum_hessian":[2.35E1,1.475E1,8.75E0,1.15E1,3.25E0,1E0,1.05E1,1.75E0,1.5E0],"tree_param":{"num_deleted":"0","num_feature":"12","num_nodes":"9","size_leaf_vector":"0"}},{"base_weights":[-0E0,5.71939E-1,-6.3595694E-1,6.81541E-1,-0E0,-0E0,-7.098405E-1,9.2509006E-5,-4.241738E-2],"categories":[],"categories_nodes":[],"categories_segments":[],"categories_sizes":[],"default_left":[1,1,1,0,1,0,0,0,0],"id":1,"left_children":[1,3,5,-1,7,-1,-1,-1,-1],"loss_changes":[1.5879932E1,1.890255E0,1.284172E0,0E0,2.1141099E-2,0E0,0E0,0E0,0E0],"parents":[2147483647,0,0,1,1,2,2,4,4],"right_children":[2,4,6,-1,8,-1,-1,-1,-1],"split_conditions":[8.7726045E-1,5E-1,1.3923E1,3.4077052E-2,6.867362E-1,-0E0,-3.5492025E-2,4.6254504E-6,-2.120869E-3],"split_indices":[4,11,10,0,4,0,0,0,0],"split_type":[0,0,0,0,0,0,0,0,0],"sum_hessian":[2.399542E1,1.4747234E1,9.248187E0,1.1497236E1,3.2499986E0,1.2497549E0,7.9984317E0,1.4999994E0,1.749999E0],"tree_param":{"num_deleted":"0","num_feature":"12","num_nodes":"9","size_leaf_vector":"0"}},{"base_weights":[5.048487E-3,5.070232E-1,-6.03157E-1,6.5990263E-1,-0E0,-0E0,-8.64949E-2],"categories":[],"categories_nodes":[],"categories_segments":[],"categories_sizes":[],"default_left":[1,1,0,0,1,0,0],"id":2,"left_children":[1,3,-1,-1,5,-1,-1],"loss_changes":[1.331607E1,3.3295584E0,0E0,0E0,8.60357E-2,0E0,0E0],"parents":[2147483647,0,0,1,1,4,4],"right_children":[2,4,-1,-1,6,-1,-1],"split_conditions":[8.7726045E-1,5E-1,-3.015785E-2,3.299513E-2,6.928282E-1,-0E0,-4.324745E-3],"split_indices":[4,11,0,0,4,0,0],"split_type":[0,0,0,0,0,0,0],"sum_hessian":[2.4228832E1,1.5986533E1,8.2423E0,1.2986539E1,2.999994E0,1.499999E0,1.499995E0],"tree_param":{"num_deleted":"0","num_feature":"12","num_nodes":"7","size_leaf_vector":"0"}},{"base_weights":[-0E0,-5.727478E-1,5.962513E-1,-6.9195694E-1,-0E0,6.371467E-1,-0E0],"categories":[],"categories_nodes":[],"categories_segments":[],"categories_sizes":[],"default_left":[1,1,1,0,0,0,0],"id":3,"left_children":[1,3,5,-1,-1,-1,-1],"loss_changes":[1.4879328E1,2.1697364E0,5.3748894E-1,0E0,0E0,0E0,0E0],"parents":[2147483647,0,0,1,1,2,2],"right_children":[2,4,6,-1,-1,-1,-1],"split_conditions":[1.3955E1,3.028003E1,5E-1,-3.4597848E-2,-0E0,3.1857338E-2,-0E0],"split_indices":[5,2,11,0,0,0,0],"split_type":[0,0,0,0,0,0,0],"sum_hessian":[2.345498E1,1.0731081E1,1.27239E1,8.734919E0,1.9961622E0,1.122445E1,1.4994495E0],"tree_param":{"num_deleted":"0","num_feature":"12","num_nodes":"7","size_leaf_vector":"0"}},{"base_weights":[-0E0,-6.179067E-1,4.8391783E-1,6.1290413E-1,-0E0,6.527211E-1,-0E0],"categories":[],"categories_nodes":[],"categories_segments":[],"categories_sizes":[],"default_left":[1,0,1,1,0,0,0],"id":4,"left_children":[1,-1,3,5,-1,-1,-1],"loss_changes":[1.336446E1,0E0,2.4074817E0,2.111435E-1,0E0,0E0,0E0],"parents":[2147483647,0,0,2,2,3,3],"right_children":[2,-1,4,6,-1,-1,-1],"split_conditions":[8.15E-2,-3.0895336E-2,8.6768305E-1,5E-1,-0E0,3.2636058E-2,-0E0],"split_indices":[8,0,4,11,0,0,0],"split_type":[0,0,0,0,0,0,0],"sum_hessian":[2.5423285E1,8.47426E0,1.6949024E1,1.3208503E1,3.7405207E0,1.0958949E1,2.2495537E0],"tree_param":{"num_deleted":"0","num_feature":"12","num_nodes":"7","size_leaf_vector":"0"}},{"base_weights":[-0E0,3.690222E-1,-5.3361183E-1,4.991336E-1,-0E0,-4.1177195E-2,-0E0],"categories":[],"categories_nodes":[],"categories_segments":[],"categories_sizes":[],"default_left":[1,1,0,0,1,0,0],"id":5,"left_children":[1,3,-1,-1,5,-1,-1],"loss_changes":[8.236057E0,1.8388479E0,0E0,0E0,1.9074503E-2,0E0,0E0],"parents":[2147483647,0,0,1,1,4,4],"right_children":[2,4,-1,-1,6,-1,-1],"split_conditions":[8.7726045E-1,5E-1,-2.6680592E-2,2.4956679E-2,3.29E0,-2.0588597E-3,-0E0],"split_indices":[4,11,0,0,9,0,0],"split_type":[0,0,0,0,0,0,0],"sum_hessian":[2.1157549E1,1.3445808E1,7.7117395E0,1.0196481E1,3.2493274E0,1.2496687E0,1.9996586E0],"tree_param":{"num_deleted":"0","num_feature":"12","num_nodes":"7","size_leaf_vector":"0"}},{"base_weights":[-0E0,-5.1426214E-1,4.3919343E-1,-5.83496E-1,-0E0,5.590175E-1,-0E0],"categories":[],"categories_nodes":[],"categories_segments":[],"categories_sizes":[],"default_left":[1,1,1,0,0,0,0],"id":6,"left_children":[1,3,5,-1,-1,-1,-1],"loss_changes":[9.767452E0,1.0153303E0,2.0910673E0,0E0,0E0,0E0,0E0],"parents":[2147483647,0,0,1,1,2,2],"right_children":[2,4,6,-1,-1,-1,-1],"split_conditions":[1.1860001E1,3.028003E1,5E-1,-2.91748E-2,-0E0,2.7950874E-2,-0E0],"split_indices":[5,2,11,0,0,0,0],"split_type":[0,0,0,0,0,0,0],"sum_hessian":[2.3607433E1,8.944927E0,1.4662507E1,7.698044E0,1.2468828E0,1.19143305E1,2.7481766E0],"tree_param":{"num_deleted":"0","num_feature":"12","num_nodes":"7","size_leaf_vector":"0"}},{"base_weights":[3.789693E-2,-4.3497175E-1,4.5163178E-1,-0E0,-5.2364844E-1,-0E0,5.4521745E-1,-3.137093E-2,-0E0],"categories":[],"categories_nodes":[],"categories_segments":[],"categories_sizes":[],"default_left":[1,1,1,0,0,1,0,0,0],"id":7,"left_children":[1,3,5,-1,-1,7,-1,-1,-1],"loss_changes":[8.22456E0,1.094594E0,1.2915821E0,0E0,0E0,1.1553061E-2,0E0,0E0,0E0],"parents":[2147483647,0,0,1,1,2,2,5,5],"right_children":[2,4,6,-1,-1,8,-1,-1,-1],"split_conditions":[8.15E-2,1.5201E1,5E-1,-0E0,-2.6182422E-2,1.205E-1,2.7260873E-2,-1.5685465E-3,-0E0],"split_indices":[8,10,7,0,0,8,0,0,0],"split_type":[0,0,0,0,0,0,0,0,0],"sum_hessian":[2.1827318E1,7.69042E0,1.4136898E1,1.4923732E0,6.198047E0,3.230041E0,1.0906857E1,1.7393016E0,1.4907393E0],"tree_param":{"num_deleted":"0","num_feature":"12","num_nodes":"9","size_leaf_vector":"0"}},{"base_weights":[-0E0,-6.049756E-1,5.014036E-1,-0E0,-6.5994626E-1,-0E0,5.6043226E-1],"categories":[],"categories_nodes":[],"categories_segments":[],"categories_sizes":[],"default_left":[1,1,1,0,0,0,0],"id":8,"left_children":[1,3,5,-1,-1,-1,-1],"loss_changes":[1.3243528E1,4.9587107E-1,7.481146E-1,0E0,0E0,0E0,0E0],"parents":[2147483647,0,0,1,1,2,2],"right_children":[2,4,6,-1,-1,-1,-1],"split_conditions":[1.4049999E1,3.5E0,3.2315001E0,-0E0,-3.2997314E-2,-0E0,2.8021613E-2],"split_indices":[5,6,9,0,0,0,0],"split_type":[0,0,0,0,0,0,0],"sum_hessian":[2.3034554E1,1.1157204E1,1.187735E1,2.239267E0,8.917936E0,1.9839547E0,9.893395E0],"tree_param":{"num_deleted":"0","num_feature":"12","num_nodes":"7","size_leaf_vector":"0"}},{"base_weights":[-0E0,-4.4764024E-1,4.5796773E-1,-0E0,-5.630012E-1,5.055081E-1,-0E0],"categories":[],"categories_nodes":[],"categories_segments":[],"categories_sizes":[],"default_left":[1,1,1,0,0,0,0],"id":9,"left_children":[1,3,5,-1,-1,-1,-1],"loss_changes":[8.423924E0,1.5725877E0,5.0159645E-1,0E0,0E0,0E0,0E0],"parents":[2147483647,0,0,1,1,2,2],"right_children":[2,4,6,-1,-1,-1,-1],"split_conditions":[1.3955E1,3.5E0,5E-1,-0E0,-2.8150061E-2,2.5275407E-2,-0E0],"split_indices":[5,6,11,0,0,0,0],"split_type":[0,0,0,0,0,0,0],"sum_hessian":[2.100767E1,8.903339E0,1.2104331E1,1.99175E0,6.911589E0,1.0105138E1,1.9991925E0],"tree_param":{"num_deleted":"0","num_feature":"12","num_nodes":"7","size_leaf_vector":"0"}},{"base_weights":[3.0198872E-2,-4.2396462E-1,5.204586E-1,-5.129238E-1,-0E0,-0E0,5.9830964E-1,-5.8197016E-1,-0E0],"categories":[],"categories_nodes":[],"categories_segments":[],"categories_sizes":[],"default_left":[1,1,1,1,0,0,0,0,0],"id":10,"left_children":[1,3,5,7,-1,-1,-1,-1,-1],"loss_changes":[9.787832E0,1.3267548E0,1.3428273E0,1.025857E0,0E0,0E0,0E0,0E0,0E0],"parents":[2147483647,0,0,1,1,2,2,3,3],"right_children":[2,4,6,8,-1,-1,-1,-1,-1],"split_conditions":[1.384E1,1.5E0,7.65E-2,1.47E-1,-0E0,-0E0,2.9915482E-2,-2.9098509E-2,-0E0],"split_indices":[5,7,8,8,0,0,0,0,0],"split_type":[0,0,0,0,0,0,0,0,0],"sum_hessian":[2.31822E1,1.0618384E1,1.2563815E1,9.129619E0,1.488766E0,1.7387302E0,1.0825085E1,7.8886223E0,1.2409959E0],"tree_param":{"num_deleted":"0","num_feature":"12","num_nodes":"9","size_leaf_vector":"0"}},{"base_weights":[9.931065E-2,-2.906648E-1,4.7587717E-1,-3.7396044E-1,-0E0,-0E0,5.451452E-1],"categories":[],"categories_nodes":[],"categories_segments":[],"categories_sizes":[],"default_left":[1,1,1,0,0,0,0],"id":11,"left_children":[1,3,5,-1,-1,-1,-1],"loss_changes":[6.6888494E0,9.0525806E-1,1.1457415E0,0E0,0E0,0E0,0E0],"parents":[2147483647,0,0,1,1,2,2],"right_children":[2,4,6,-1,-1,-1,-1],"split_conditions":[1.4045E1,3.1284477E1,7.4E-2,-1.8698022E-2,-0E0,-0E0,2.7257262E-2],"split_indices":[5,2,8,0,0,0,0],"split_type":[0,0,0,0,0,0,0],"sum_hessian":[2.360681E1,1.010845E1,1.349836E1,8.621438E0,1.4870114E0,1.7368501E0,1.176151E1],"tree_param":{"num_deleted":"0","num_feature":"12","num_nodes":"7","size_leaf_vector":"0"}},{"base_weights":[-0E0,-3.8932642E-1,4.401973E-1,-4.843723E-1,-0E0,4.991708E-1,-0E0,-5.4600435E-1,-0E0],"categories":[],"categories_nodes":[],"categories_segments":[],"categories_sizes":[],"default_left":[1,1,1,1,0,0,0,0,0],"id":12,"left_children":[1,3,5,7,-1,-1,-1,-1,-1],"loss_changes":[7.835452E0,1.5616128E0,6.515918E-1,9.6871424E-1,0E0,0E0,0E0,0E0,0E0],"parents":[2147483647,0,0,1,1,2,2,3,3],"right_children":[2,4,6,8,-1,-1,-1,-1,-1],"split_conditions":[1.3955E1,1.435E-1,5E-1,1.5E0,-0E0,2.4958542E-2,-0E0,-2.7300218E-2,-0E0],"split_indices":[5,8,11,7,0,0,0,0,0],"split_type":[0,0,0,0,0,0,0,0,0],"sum_hessian":[2.5296041E1,1.2316557E1,1.2979484E1,1.1073737E1,1.2428198E0,1.048553E1,2.4939542E0,9.834111E0,1.2396265E0],"tree_param":{"num_deleted":"0","num_feature":"12","num_nodes":"9","size_leaf_vector":"0"}},{"base_weights":[-0E0,-4.8408666E-1,5.297454E-1,-5.277168E-1,-0E0,5.4686636E-1,-0E0],"categories":[],"categories_nodes":[],"categories_segments":[],"categories_sizes":[],"default_left":[1,1,1,0,0,0,0],"id":13,"left_children":[1,3,5,-1,-1,-1,-1],"loss_changes":[1.1249723E1,5.582557E-1,2.9884338E-2,0E0,0E0,0E0,0E0],"parents":[2147483647,0,0,1,1,2,2],"right_children":[2,4,6,-1,-1,-1,-1],"split_conditions":[1.3955E1,3.1811186E1,8.6300796E-1,-2.6385842E-2,-0E0,2.7343318E-2,-0E0],"split_indices":[5,2,4,0,0,0,0],"split_type":[0,0,0,0,0,0,0],"sum_hessian":[2.3719042E1,1.2016688E1,1.17023535E1,1.0531242E1,1.4854455E0,1.0464661E1,1.2376932E0],"tree_param":{"num_deleted":"0","num_feature":"12","num_nodes":"7","size_leaf_vector":"0"}},{"base_weights":[-0E0,-4.8199263E-1,3.1418228E-1,-0E0,-5.188056E-1,-4.5551367E-2,5.2067506E-1,-0E0,-1.5971182E-1,5.9446555E-1,-0E0],"categories":[],"categories_nodes":[],"categories_segments":[],"categories_sizes":[],"default_left":[1,1,1,0,0,1,1,0,0,0,0],"id":14,"left_children":[1,3,5,-1,-1,7,9,-1,-1,-1,-1],"loss_changes":[6.608037E0,2.7442312E-1,2.9649892E0,0E0,0E0,3.004114E-1,8.257704E-1,0E0,0E0,0E0,0E0],"parents":[2147483647,0,0,1,1,2,2,5,5,6,6],"right_children":[2,4,6,-1,-1,8,10,-1,-1,-1,-1],"split_conditions":[8.050001E-2,1.51575E1,2.317686E1,-0E0,-2.5940282E-2,8.8975E0,1.0126841E0,-0E0,-7.985591E-3,2.9723277E-2,-0E0],"split_indices":[8,10,2,0,0,10,4,0,0,0,0],"split_type":[0,0,0,0,0,0,0,0,0,0,0],"sum_hessian":[2.220622E1,8.276373E0,1.3929849E1,1.482105E0,6.7942677E0,4.390166E0,9.539682E0,1.4423975E0,2.9477682E0,7.326581E0,2.2131016E0],"tree_param":{"num_deleted":"0","num_feature":"12","num_nodes":"11","size_leaf_vector":"0"}},{"base_weights":[-0E0,2.5057057E-1,-4.398443E-1,3.626046E-1,-0E0,-0E0,4.460548E-1,-4.4993848E-2,-0E0],"categories":[],"categories_nodes":[],"categories_segments":[],"categories_sizes":[],"default_left":[1,1,0,1,0,1,0,0,0],"id":15,"left_children":[1,3,-1,5,-1,7,-1,-1,-1],"loss_changes":[4.9827824E0,1.2161198E0,0E0,8.671899E-1,0E0,2.3187228E-2,0E0,0E0,0E0],"parents":[2147483647,0,0,1,1,3,3,5,5],"right_children":[2,4,-1,6,-1,8,-1,-1,-1],"split_conditions":[8.7726045E-1,5E-1,-2.1992216E-2,4.5981932E-1,-0E0,1.5E0,2.230274E-2,-2.2496923E-3,-0E0],"split_indices":[4,11,0,4,0,7,0,0,0],"split_type":[0,0,0,0,0,0,0,0,0],"sum_hessian":[2.1892956E1,1.3890553E1,8.002403E0,1.0657589E1,3.2329648E0,2.6479142E0,8.009674E0,1.4536144E0,1.1942997E0],"tree_param":{"num_deleted":"0","num_feature":"12","num_nodes":"9","size_leaf_vector":"0"}},{"base_weights":[9.451894E-2,-3.7708178E-1,4.4580808E-1,-4.0687132E-1,-0E0,5.1573634E-1,-0E0],"categories":[],"categories_nodes":[],"categories_segments":[],"categories_sizes":[],"default_left":[1,1,1,0,0,0,0],"id":16,"left_children":[1,3,5,-1,-1,-1,-1],"loss_changes":[7.1689997E0,1.4896631E-1,9.9159384E-1,0E0,0E0,0E0,0E0],"parents":[2147483647,0,0,1,1,2,2],"right_children":[2,4,6,-1,-1,-1,-1],"split_conditions":[8.15E-2,2.5E0,5E-1,-2.0343566E-2,-0E0,2.5786817E-2,-0E0],"split_indices":[8,3,11,0,0,0,0],"split_type":[0,0,0,0,0,0,0],"sum_hessian":[2.229639E1,6.7743626E0,1.5522029E1,5.307834E0,1.4665284E0,1.2798238E1,2.7237911E0],"tree_param":{"num_deleted":"0","num_feature":"12","num_nodes":"7","size_leaf_vector":"0"}},{"base_weights":[5.520235E-3,3.856523E-1,-3.9506984E-1,-0E0,4.489573E-1,-0E0,4.907635E-1,-0E0,3.4775835E-2],"categories":[],"categories_nodes":[],"categories_segments":[],"categories_sizes":[],"default_left":[1,1,0,0,1,1,0,0,0],"id":17,"left_children":[1,3,-1,-1,5,7,-1,-1,-1],"loss_changes":[6.4552135E0,5.821526E-1,0E0,0E0,1.8243933E-1,1.3829552E-2,0E0,0E0,0E0],"parents":[2147483647,0,0,1,1,4,4,5,5],"right_children":[2,4,-1,-1,6,8,-1,-1,-1],"split_conditions":[8.7726045E-1,1.3955E1,-1.9753492E-2,-0E0,4.5809132E-1,1.5E0,2.4538174E-2,-0E0,1.7387917E-3],"split_indices":[4,5,0,0,4,7,0,0,0],"split_type":[0,0,0,0,0,0,0,0,0],"sum_hessian":[2.25095E1,1.4302732E1,8.206768E0,3.4821992E0,1.0820533E1,2.6386623E0,8.18187E0,1.2032195E0,1.4354428E0],"tree_param":{"num_deleted":"0","num_feature":"12","num_nodes":"9","size_leaf_vector":"0"}},{"base_weights":[-0E0,-4.784242E-1,3.2144955E-1,-0E0,5.009158E-1,-0E0,-1.1271912E-1,5.9374475E-1,-0E0,-1.330706E-1,-0E0],"categories":[],"categories_nodes":[],"categories_segments":[],"categories_sizes":[],"default_left":[1,0,1,1,1,0,1,0,0,0,0],"id":18,"left_children":[1,-1,3,5,7,-1,9,-1,-1,-1,-1],"loss_changes":[6.602321E0,0E0,2.3327463E0,1.7012152E-1,1.3075724E0,0E0,4.590486E-2,0E0,0E0,0E0,0E0],"parents":[2147483647,0,0,2,2,3,3,4,4,6,6],"right_children":[2,-1,4,6,8,-1,10,-1,-1,-1,-1],"split_conditions":[8.050001E-2,-2.392121E-2,2.3680817E1,9.6499994E-2,1.0126841E0,-0E0,5.06E0,2.9687239E-2,-0E0,-6.65353E-3,-0E0],"split_indices":[8,0,2,8,4,0,9,0,0,0,0],"split_type":[0,0,0,0,0,0,0,0,0,0,0],"sum_hessian":[2.2685118E1,7.4552264E0,1.5229893E1,5.5430903E0,9.686802E0,2.1536002E0,3.3894901E0,7.72124E0,1.9655617E0,2.199514E0,1.1899763E0],"tree_param":{"num_deleted":"0","num_feature":"12","num_nodes":"11","size_leaf_vector":"0"}},{"base_weights":[6.813054E-3,-4.2456463E-1,4.7909325E-1,-0E0,-4.6981394E-1,5.4902196E-1,-0E0],"categories":[],"categories_nodes":[],"categories_segments":[],"categories_sizes":[],"default_left":[1,1,1,0,0,0,0],"id":19,"left_children":[1,3,5,-1,-1,-1,-1],"loss_changes":[8.979363E0,5.086858E-1,9.011655E-1,0E0,0E0,0E0,0E0],"parents":[2147483647,0,0,1,1,2,2],"right_children":[2,4,6,-1,-1,-1,-1],"split_conditions":[1.3955E1,2.5E0,5E-1,-0E0,-2.3490697E-2,2.7451098E-2,-0E0],"split_indices":[5,6,11,0,0,0,0],"split_type":[0,0,0,0,0,0,0],"sum_hessian":[2.3555233E1,1.062551E1,1.2929723E1,1.4770834E0,9.148427E0,1.0450296E1,2.4794273E0],"tree_param":{"num_deleted":"0","num_feature":"12","num_nodes":"7","size_leaf_vector":"0"}},{"base_weights":[-0E0,-4.3902937E-1,4.2955717E-1,-5.3460455E-1,-0E0,-0E0,5.0590885E-1,-5.561479E-1,-0E0],"categories":[],"categories_nodes":[],"categories_segments":[],"categories_sizes":[],"default_left":[1,1,1,1,0,0,0,0,0],"id":20,"left_children":[1,3,5,7,-1,-1,-1,-1,-1],"loss_changes":[7.8342967E0,1.4512966E0,1.0895369E0,5.9018135E-2,0E0,0E0,0E0,0E0,0E0],"parents":[2147483647,0,0,1,1,2,2,3,3],"right_children":[2,4,6,8,-1,-1,-1,-1,-1],"split_conditions":[1.3955E1,3.1284477E1,7.65E-2,4.712E0,-0E0,-0E0,2.5295442E-2,-2.7807394E-2,-0E0],"split_indices":[5,2,8,9,0,0,0,0,0],"split_type":[0,0,0,0,0,0,0,0,0],"sum_hessian":[2.1560276E1,1.0130414E1,1.1429861E1,8.65406E0,1.4763535E0,1.7233375E0,9.706524E0,7.4276714E0,1.2263896E0],"tree_param":{"num_deleted":"0","num_feature":"12","num_nodes":"9","size_leaf_vector":"0"}},{"base_weights":[-0E0,3.3447862E-1,-3.431605E-1,4.1954908E-1,-0E0,-0E0,-3.8438872E-1,-2.2358289E-2,-0E0],"categories":[],"categories_nodes":[],"categories_segments":[],"categories_sizes":[],"default_left":[1,1,1,0,1,0,0,0,0],"id":21,"left_children":[1,3,5,-1,7,-1,-1,-1,-1],"loss_changes":[4.663462E0,1.048814E0,2.0420694E-1,0E0,5.6159506E-3,0E0,0E0,0E0,0E0],"parents":[2147483647,0,0,1,1,2,2,4,4],"right_children":[2,4,6,-1,8,-1,-1,-1,-1],"split_conditions":[8.6768305E-1,5E-1,1.65475E1,2.0977454E-2,4.0495E0,-0E0,-1.9219436E-2,-1.1179144E-3,-0E0],"split_indices":[4,11,10,0,9,0,0,0,0],"split_type":[0,0,0,0,0,0,0,0,0],"sum_hessian":[2.0757086E1,1.3126406E1,7.63068E0,1.0657156E1,2.4692492E0,2.1971204E0,5.43356E0,1.2343041E0,1.234945E0],"tree_param":{"num_deleted":"0","num_feature":"12","num_nodes":"9","size_leaf_vector":"0"}},{"base_weights":[-0E0,3.4485605E-1,-4.5152038E-1,4.488261E-1,-0E0,-4.9455836E-1,-0E0,-0E0,5.0842535E-1,3.9149776E-2,-1.6284579E-3],"categories":[],"categories_nodes":[],"categories_segments":[],"categories_sizes":[],"default_left":[1,1,1,1,0,0,0,1,0,0,0],"id":22,"left_children":[1,3,5,7,-1,-1,-1,9,-1,-1,-1],"loss_changes":[6.7715855E0,1.3435693E0,3.7662792E-1,3.1813335E-1,0E0,0E0,0E0,1.8610073E-2,0E0,0E0,0E0],"parents":[2147483647,0,0,1,1,2,2,3,3,7,7],"right_children":[2,4,6,8,-1,-1,-1,10,-1,-1,-1],"split_conditions":[8.6768305E-1,5E-1,3.0911533E1,2.328386E1,-0E0,-2.4727918E-2,-0E0,2.1156599E1,2.5421267E-2,1.957489E-3,-8.14229E-5],"split_indices":[4,11,2,2,0,0,0,2,0,0,0],"split_type":[0,0,0,0,0,0,0,0,0,0,0],"sum_hessian":[2.3023653E1,1.3540832E1,9.482821E0,1.0567309E1,2.9735217E0,7.779303E0,1.7035184E0,3.3086045E0,7.258705E0,2.1226265E0,1.185978E0],"tree_param":{"num_deleted":"0","num_feature":"12","num_nodes":"11","size_leaf_vector":"0"}},{"base_weights":[-0E0,2.7224714E-1,-3.9788043E-1,-0E0,3.9591646E-1,-0E0,-5.0234187E-1,-0E0,-3.680287E-2,-0E0,4.5906055E-1,-0E0,4.1695062E-2,-6.2218074E-2,-0E0,-0E0,4.9428293E-1],"categories":[],"categories_nodes":[],"categories_segments":[],"categories_sizes":[],"default_left":[1,1,1,1,1,1,0,0,1,0,1,0,0,0,0,0,0],"id":23,"left_children":[1,3,5,7,9,11,-1,-1,13,-1,15,-1,-1,-1,-1,-1,-1],"loss_changes":[4.8050795E0,1.252887E0,1.0710595E0,1.7732944E-2,7.784536E-1,1.9549476E-2,0E0,0E0,2.7510438E-2,0E0,3.1574392E-1,0E0,0E0,0E0,0E0,0E0,0E0],"parents":[2147483647,0,0,1,1,2,2,3,3,4,4,5,5,8,8,10,10],"right_children":[2,4,6,8,10,12,-1,-1,14,-1,16,-1,-1,-1,-1,-1,-1],"split_conditions":[8.6674803E-1,2.328386E1,1.65475E1,1.9581028E1,6.35E-2,2.820834E1,-2.5117094E-2,-0E0,1.6029184E1,-0E0,2.4529617E1,-0E0,2.0847532E-3,-3.1109038E-3,-0E0,-0E0,2.4714148E-2],"split_indices":[4,2,10,2,8,2,0,0,5,0,2,0,0,0,0,0,0],"split_type":[0,0,0,0,0,0,0,0,0,0,0,0,0,0,0,0,0],"sum_hessian":[2.296713E1,1.3720028E1,9.247103E0,4.511205E0,9.208823E0,2.928146E0,6.3189564E0,1.4188567E0,3.0923483E0,1.2269737E0,7.9818497E0,1.6829804E0,1.2451656E0,1.6875076E0,1.4048406E0,1.1790876E0,6.802762E0],"tree_param":{"num_deleted":"0","num_feature":"12","num_nodes":"17","size_leaf_vector":"0"}},{"base_weights":[-0E0,2.0781897E-1,-3.2147825E-1,-4.732751E-2,4.2730784E-1,-3.964947E-1,-0E0,-0E0,-1.9806857E-1,1.8645871E-2,-0E0],"categories":[],"categories_nodes":[],"categories_segments":[],"categories_sizes":[],"default_left":[1,1,1,1,0,0,0,1,0,0,0],"id":24,"left_children":[1,3,5,7,-1,-1,-1,9,-1,-1,-1],"loss_changes":[2.8832717E0,2.36577E0,5.922196E-1,4.945402E-1,0E0,0E0,0E0,3.962206E-3,0E0,0E0,0E0],"parents":[2147483647,0,0,1,1,2,2,3,3,7,7],"right_children":[2,4,6,8,-1,-1,-1,10,-1,-1,-1],"split_conditions":[5E-1,2.455043E1,4.0495E0,2.1144064E1,2.1365393E-2,-1.9824734E-2,-0E0,1.0913E1,-9.903429E-3,9.322936E-4,-0E0],"split_indices":[11,2,9,2,0,0,0,10,0,0,0],"split_type":[0,0,0,0,0,0,0,0,0,0,0],"sum_hessian":[2.2487913E1,1.5063032E1,7.424881E0,6.379174E0,8.683858E0,5.2221904E0,2.2026906E0,2.8382056E0,3.5409684E0,1.3965052E0,1.4417005E0],"tree_param":{"num_deleted":"0","num_feature":"12","num_nodes":"11","size_leaf_vector":"0"}},{"base_weights":[-0E0,-4.0235603E-1,3.0713695E-1,-0E0,4.5373747E-1,-1.06811605E-1,1.1976625E-2,-0E0,5.0378835E-1,-0E0,1.0585971E-2],"categories":[],"categories_nodes":[],"categories_segments":[],"categories_sizes":[],"default_left":[1,0,1,1,1,0,0,1,0,0,0],"id":25,"left_children":[1,-1,3,5,7,-1,-1,9,-1,-1,-1],"loss_changes":[5.0433235E0,0E0,1.6402855E0,1.4360371E-1,2.1605182E-1,0E0,0E0,1.2741674E-3,0E0,0E0,0E0],"parents":[2147483647,0,0,2,2,3,3,4,4,7,7],"right_children":[2,-1,4,6,8,-1,-1,10,-1,-1,-1],"split_conditions":[8.15E-2,-2.0117803E-2,1.3955E1,2.455043E1,4.613831E-1,-5.3405804E-3,5.988313E-4,2.525E1,2.5189418E-2,-0E0,5.2929856E-4],"split_indices":[8,0,5,2,4,0,0,5,0,0,0],"split_type":[0,0,0,0,0,0,0,0,0,0,0],"sum_hessian":[2.142622E1,6.807368E0,1.4618853E1,5.3712206E0,9.247632E0,2.4244125E0,2.946808E0,2.7832289E0,6.464403E0,1.4131079E0,1.3701211E0],"tree_param":{"num_deleted":"0","num_feature":"12","num_nodes":"11","size_leaf_vector":"0"}},{"base_weights":[-0E0,3.7623578E-1,-3.925505E-1,4.859312E-1,-0E0,-4.523079E-1,-0E0],"categories":[],"categories_nodes":[],"categories_segments":[],"categories_sizes":[],"default_left":[1,1,1,0,0,0,0],"id":26,"left_children":[1,3,5,-1,-1,-1,-1],"loss_changes":[6.1409807E0,1.6538239E0,6.4519715E-1,0E0,0E0,0E0,0E0],"parents":[2147483647,0,0,1,1,2,2],"right_children":[2,4,6,-1,-1,-1,-1],"split_conditions":[8.6768305E-1,5E-1,3.0439758E1,2.429656E-2,-0E0,-2.2615395E-2,-0E0],"split_indices":[4,11,2,0,0,0,0],"split_type":[0,0,0,0,0,0,0],"sum_hessian":[2.1727785E1,1.3049557E1,8.678229E0,1.0821513E1,2.228043E0,7.2225704E0,1.4556588E0],"tree_param":{"num_deleted":"0","num_feature":"12","num_nodes":"7","size_leaf_vector":"0"}},{"base_weights":[-0E0,-3.0165243E-1,4.1519746E-1,-4.1742808E-1,-0E0,-4.9720252E-1,-0E0,4.943329E-2,-3.77222E-2],"categories":[],"categories_nodes":[],"categories_segments":[],"categories_sizes":[],"default_left":[1,1,0,1,0,0,1,0,0],"id":27,"left_children":[1,3,-1,5,-1,-1,7,-1,-1],"loss_changes":[5.257474E0,1.570375E0,0E0,8.316567E-1,0E0,0E0,4.5313098E-2,0E0,0E0],"parents":[2147483647,0,0,1,1,3,3,6,6],"right_children":[2,4,-1,6,-1,-1,8,-1,-1],"split_conditions":[1.5E0,1.6805E1,2.0759873E-2,2.8457172E1,-0E0,-2.4860127E-2,5E-1,2.4716647E-3,-1.88611E-3],"split_indices":[7,5,0,2,0,0,11,0,0],"split_type":[0,0,0,0,0,0,0,0,0],"sum_hessian":[2.2818789E1,1.6095192E1,6.7235975E0,1.2639725E1,3.4554663E0,9.321775E0,3.31795E0,1.8865995E0,1.4313505E0],"tree_param":{"num_deleted":"0","num_feature":"12","num_nodes":"9","size_leaf_vector":"0"}},{"base_weights":[-0E0,-3.7667727E-1,3.7642872E-1,-4.383429E-1,-0E0,4.2308632E-1,-0E0,-4.5940438E-1,-0E0],"categories":[],"categories_nodes":[],"categories_segments":[],"categories_sizes":[],"default_left":[1,1,1,1,0,0,0,0,0],"id":28,"left_children":[1,3,5,7,-1,-1,-1,-1,-1],"loss_changes":[6.078642E0,8.708534E-1,2.944324E-1,1.3844967E-1,0E0,0E0,0E0,0E0,0E0],"parents":[2147483647,0,0,1,1,2,2,3,3],"right_children":[2,4,6,8,-1,-1,-1,-1,-1],"split_conditions":[1.3955E1,3.1284477E1,5E-1,5.6155E0,-0E0,2.1154316E-2,-0E0,-2.297022E-2,-0E0],"split_indices":[5,2,11,9,0,0,0,0,0],"split_type":[0,0,0,0,0,0,0,0,0],"sum_hessian":[2.286936E1,1.1978004E1,1.0891356E1,1.0761561E1,1.2164423E0,8.18252E0,2.7088366E0,9.557558E0,1.2040035E0],"tree_param":{"num_deleted":"0","num_feature":"12","num_nodes":"9","size_leaf_vector":"0"}},{"base_weights":[-0E0,-3.5872954E-1,2.4438088E-1,-0E0,4.3151364E-1,7.560754E-2,-1.5928908E-1,-0E0,8.261979E-2],"categories":[],"categories_nodes":[],"categories_segments":[],"categories_sizes":[],"default_left":[1,0,1,1,0,1,0,0,0],"id":29,"left_children":[1,-1,3,5,-1,7,-1,-1,-1],"loss_changes":[3.7549157E0,0E0,1.7046648E0,4.4407105E-1,0E0,5.2805543E-3,0E0,0E0,0E0],"parents":[2147483647,0,0,2,2,3,3,5,5],"right_children":[2,-1,4,6,-1,8,-1,-1,-1],"split_conditions":[7.65E-2,-1.7936477E-2,2.4429066E1,9.6499994E-2,2.1575682E-2,2.5E0,-7.964454E-3,-0E0,4.13099E-3],"split_indices":[8,0,2,8,0,3,0,0,0],"split_type":[0,0,0,0,0,0,0,0,0],"sum_hessian":[2.2517733E1,7.627397E0,1.4890336E1,7.7523293E0,7.138006E0,3.2317E0,4.5206294E0,1.3771422E0,1.8545578E0],"tree_param":{"num_deleted":"0","num_feature":"12","num_nodes":"9","size_leaf_vector":"0"}},{"base_weights":[-0E0,-3.1073463E-1,2.054654E-1,-3.7147522E-1,-0E0,-0E0,2.9044545E-1,3.6687486E-2,-1.0620715E-1],"categories":[],"categories_nodes":[],"categories_segments":[],"categories_sizes":[],"default_left":[1,1,1,0,0,1,0,0,0],"id":30,"left_children":[1,3,5,-1,-1,7,-1,-1,-1],"loss_changes":[2.6887941E0,6.140828E-1,5.96262E-1,0E0,0E0,1.4707166E-1,0E0,0E0,0E0],"parents":[2147483647,0,0,1,1,2,2,5,5],"right_children":[2,4,6,-1,-1,8,-1,-1,-1],"split_conditions":[1.384E1,3.1811186E1,4.613831E-1,-1.8573761E-2,-0E0,3.2051283E-1,1.4522272E-2,1.8343743E-3,-5.3103575E-3],"split_indices":[5,2,4,0,0,4,0,0,0],"split_type":[0,0,0,0,0,0,0,0,0],"sum_hessian":[1.9450722E1,8.832203E0,1.0618518E1,7.6271996E0,1.205004E0,3.2320902E0,7.386428E0,1.574944E0,1.6571462E0],"tree_param":{"num_deleted":"0","num_feature":"12","num_nodes":"9","size_leaf_vector":"0"}},{"base_weights":[-0E0,-4.245749E-1,2.7941674E-1,-0E0,-4.5149723E-1,3.9907447E-1,-0E0,-0E0,4.581111E-1,-8.313737E-2,-0E0,4.7383808E-2,-0E0],"categories":[],"categories_nodes":[],"categories_segments":[],"categories_sizes":[],"default_left":[1,1,1,0,0,1,1,1,0,0,0,0,0],"id":31,"left_children":[1,3,5,-1,-1,7,9,11,-1,-1,-1,-1,-1],"loss_changes":[4.9211454E0,1.6056442E-1,1.3870481E0,0E0,0E0,2.0771599E-1,8.5528076E-2,2.7590336E-2,0E0,0E0,0E0,0E0,0E0],"parents":[2147483647,0,0,1,1,2,2,5,5,6,6,7,7],"right_children":[2,4,6,-1,-1,8,10,12,-1,-1,-1,-1,-1],"split_conditions":[7.85E-2,2.3855E0,8.6674803E-1,-0E0,-2.2574862E-2,2.4408255E1,2.8372005E1,1.075E-1,2.2905556E-2,-4.1568684E-3,-0E0,2.3691903E-3,-0E0],"split_indices":[8,9,4,0,0,2,2,8,0,0,0,0,0],"split_type":[0,0,0,0,0,0,0,0,0,0,0,0,0],"sum_hessian":[2.0992567E1,6.838253E0,1.4154313E1,1.1605649E0,5.677688E0,1.0550397E1,3.6039166E0,3.965603E0,6.5847936E0,2.3741708E0,1.2297459E0,2.28845E0,1.677153E0],"tree_param":{"num_deleted":"0","num_feature":"12","num_nodes":"13","size_leaf_vector":"0"}},{"base_weights":[-0E0,-4.254371E-1,2.4535988E-1,-0E0,4.1518173E-1,4.354243E-2,-1.7754206E-1,4.645682E-1,-0E0],"categories":[],"categories_nodes":[],"categories_segments":[],"categories_sizes":[],"default_left":[1,0,1,1,1,0,0,0,0],"id":32,"left_children":[1,-1,3,5,7,-1,-1,-1,-1],"loss_changes":[4.4953036E0,0E0,1.7582948E0,4.3606928E-1,4.5372272E-1,0E0,0E0,0E0,0E0],"parents":[2147483647,0,0,2,2,3,3,4,4],"right_children":[2,-1,4,6,8,-1,-1,-1,-1],"split_conditions":[7.85E-2,-2.1271855E-2,2.4429066E1,1.1804E1,1.0126841E0,2.1771216E-3,-8.877103E-3,2.322841E-2,-0E0],"split_indices":[8,0,2,10,4,0,0,0,0],"split_type":[0,0,0,0,0,0,0,0,0],"sum_hessian":[2.126272E1,6.649885E0,1.4612835E1,5.816562E0,8.796272E0,2.74924E0,3.067322E0,7.114653E0,1.6816196E0],"tree_param":{"num_deleted":"0","num_feature":"12","num_nodes":"9","size_leaf_vector":"0"}},{"base_weights":[-1.0981642E-2,-4.134894E-1,2.72654E-1,-4.5808014E-1,-0E0,3.8929266E-1,-0E0,-7.349901E-2,5.6792274E-2,-2.0967819E-1,-0E0],"categories":[],"categories_nodes":[],"categories_segments":[],"categories_sizes":[],"default_left":[1,1,1,0,0,0,1,1,0,0,0],"id":33,"left_children":[1,3,5,-1,-1,-1,7,9,-1,-1,-1],"loss_changes":[4.9244723E0,4.6272755E-1,8.051046E-1,0E0,0E0,0E0,1.1199048E-1,4.800749E-1,0E0,0E0,0E0],"parents":[2147483647,0,0,1,1,2,2,6,6,7,7],"right_children":[2,4,6,-1,-1,-1,8,10,-1,-1,-1],"split_conditions":[1.3955E1,3.0700354E1,5E-1,-2.2904007E-2,-0E0,1.9464632E-2,4.5E0,2.5E0,2.8396137E-3,-1.0483909E-2,-0E0],"split_indices":[5,2,0,0,0,0,3,7,0,0,0],"split_type":[0,0,0,0,0,0,0,0,0,0,0],"sum_hessian":[2.0792183E1,9.617329E0,1.1174855E1,8.18918E0,1.4281486E0,5.6995506E0,5.4753046E0,3.7009282E0,1.7743766E0,2.6029685E0,1.0979598E0],"tree_param":{"num_deleted":"0","num_feature":"12","num_nodes":"11","size_leaf_vector":"0"}},{"base_weights":[-0E0,-2.9431874E-1,2.830086E-1,-3.408921E-1,-0E0,3.7823492E-1,-0E0,-0E0,3.9590713E-1,-1.9588213E-2,7.150529E-4,-9.049251E-2,-0E0],"categories":[],"categories_nodes":[],"categories_segments":[],"categories_sizes":[],"default_left":[1,1,1,0,0,1,1,0,0,1,0,0,0],"id":34,"left_children":[1,3,5,-1,-1,7,9,-1,-1,11,-1,-1,-1],"loss_changes":[3.4916525E0,3.702997E-1,6.8583333E-1,0E0,0E0,5.0843954E-2,5.1825866E-3,0E0,0E0,9.591757E-2,0E0,0E0,0E0],"parents":[2147483647,0,0,1,1,2,2,5,5,6,6,9,9],"right_children":[2,4,6,-1,-1,8,10,-1,-1,12,-1,-1,-1],"split_conditions":[1.3955E1,4.712E0,5E-1,-1.7044606E-2,-0E0,2.648E0,4.5E0,-0E0,1.9795356E-2,1.5E0,3.5752644E-5,-4.5246254E-3,-0E0],"split_indices":[5,9,0,0,0,9,3,0,0,7,0,0,0],"split_type":[0,0,0,0,0,0,0,0,0,0,0,0,0],"sum_hessian":[2.1955645E1,1.0102542E1,1.1853102E1,8.171409E0,1.9311333E0,7.028552E0,4.82455E0,1.1619068E0,5.8666453E0,3.491836E0,1.332714E0,2.3453004E0,1.1465354E0],"tree_param":{"num_deleted":"0","num_feature":"12","num_nodes":"13","size_leaf_vector":"0"}},{"base_weights":[-0E0,-2.902988E-1,2.4458356E-1,-0E0,-3.3832672E-1,-0E0,3.8796136E-1,-0E0,-1.16987556E-1,4.7064382E-1,-0E0],"categories":[],"categories_nodes":[],"categories_segments":[],"categories_sizes":[],"default_left":[1,1,1,0,0,1,1,0,0,0,0],"id":35,"left_children":[1,3,5,-1,-1,7,9,-1,-1,-1,-1],"loss_changes":[2.7530065E0,2.9998624E-1,1.4580289E0,0E0,0E0,1.7252216E-1,8.524356E-1,0E0,0E0,0E0,0E0],"parents":[2147483647,0,0,1,1,2,2,5,5,6,6],"right_children":[2,4,6,-1,-1,8,10,-1,-1,-1,-1],"split_conditions":[8.2E-2,1.55675E1,2.3680817E1,-0E0,-1.6916336E-2,9.6499994E-2,5E-1,-0E0,-5.8493777E-3,2.3532191E-2,-0E0],"split_indices":[8,10,2,0,0,8,11,0,0,0,0],"split_type":[0,0,0,0,0,0,0,0,0,0,0],"sum_hessian":[1.9361557E1,6.291083E0,1.3070475E1,1.6762096E0,4.6148734E0,4.21422E0,8.856254E0,1.6085619E0,2.6056583E0,6.661277E0,2.194977E0],"tree_param":{"num_deleted":"0","num_feature":"12","num_nodes":"11","size_leaf_vector":"0"}},{"base_weights":[-0E0,2.9871014E-1,-4.351925E-1,3.6395258E-1,-0E0,-0E0,-4.5203894E-1,-0E0,4.0834844E-1],"categories":[],"categories_nodes":[],"categories_segments":[],"categories_sizes":[],"default_left":[1,1,1,1,0,0,0,0,0],"id":36,"left_children":[1,3,5,7,-1,-1,-1,-1,-1],"loss_changes":[5.284483E0,5.9893763E-1,2.0777464E-2,3.6083102E-1,0E0,0E0,0E0,0E0,0E0],"parents":[2147483647,0,0,1,1,2,2,3,3],"right_children":[2,4,6,8,-1,-1,-1,-1,-1],"split_conditions":[8.7824154E-1,5E-1,1.4278E1,5.4585E0,-0E0,-0E0,-2.2601947E-2,-0E0,2.0417422E-2],"split_indices":[4,11,10,10,0,0,0,0,0],"split_type":[0,0,0,0,0,0,0,0,0],"sum_hessian":[1.95869E1,1.2093394E1,7.4935064E0,9.403992E0,2.6894028E0,1.1779056E0,6.3156013E0,1.8259449E0,7.578047E0],"tree_param":{"num_deleted":"0","num_feature":"12","num_nodes":"9","size_leaf_vector":"0"}},{"base_weights":[1.05682075E-1,3.1604755E-1,-1.4727786E-1,4.2045388E-1,-0E0,-0E0,-1.9118492E-1,-2.399313E-2,-0E0],"categories":[],"categories_nodes":[],"categories_segments":[],"categories_sizes":[],"default_left":[1,1,1,0,1,0,0,0,0],"id":37,"left_children":[1,3,5,-1,7,-1,-1,-1,-1],"loss_changes":[2.4232514E0,1.249129E0,1.9815767E-1,0E0,6.4604552E-3,0E0,0E0,0E0,0E0],"parents":[2147483647,0,0,1,1,2,2,4,4],"right_children":[2,4,6,-1,8,-1,-1,-1,-1],"split_conditions":[8.7726045E-1,5E-1,1.3438999E1,2.1022694E-2,3.29E0,-0E0,-9.559247E-3,-1.1996565E-3,-0E0],"split_indices":[4,11,10,0,9,0,0,0,0],"split_type":[0,0,0,0,0,0,0,0,0],"sum_hessian":[2.0447672E1,1.4118729E1,6.328944E0,1.069365E1,3.4250789E0,1.2175981E0,5.111346E0,1.2224909E0,2.202588E0],"tree_param":{"num_deleted":"0","num_feature":"12","num_nodes":"9","size_leaf_vector":"0"}},{"base_weights":[-0E0,-3.5704148E-1,3.645044E-1,-0E0,-4.0593034E-1,-0E0,4.3108603E-1,-0E0,4.5765698E-1],"categories":[],"categories_nodes":[],"categories_segments":[],"categories_sizes":[],"default_left":[1,1,1,0,0,0,1,0,0],"id":38,"left_children":[1,3,5,-1,-1,-1,7,-1,-1],"loss_changes":[5.25805E0,4.3463206E-1,7.5664663E-1,0E0,0E0,0E0,1.742804E-1,0E0,0E0],"parents":[2147483647,0,0,1,1,2,2,6,6],"right_children":[2,4,6,-1,-1,-1,8,-1,-1],"split_conditions":[1.1825E1,8.998989E-1,4.507078E-1,-0E0,-2.0296518E-2,-0E0,7.5E-2,-0E0,2.2882849E-2],"split_indices":[5,4,4,0,0,0,8,0,0],"split_type":[0,0,0,0,0,0,0,0,0],"sum_hessian":[2.0309593E1,8.128973E0,1.218062E1,1.466164E0,6.6628094E0,2.2509136E0,9.929707E0,1.4149203E0,8.514787E0],"tree_param":{"num_deleted":"0","num_feature":"12","num_nodes":"9","size_leaf_vector":"0"}},{"base_weights":[-0E0,3.8461736E-1,-2.793925E-1,-0E0,4.4497165E-1,-4.0864915E-1,-0E0,-0E0,-4.6037796E-1],"categories":[],"categories_nodes":[],"categories_segments":[],"categories_sizes":[],"default_left":[1,1,1,0,0,1,0,0,0],"id":39,"left_children":[1,3,5,-1,-1,7,-1,-1,-1],"loss_changes":[4.536297E0,5.894108E-1,1.5376532E0,0E0,0E0,5.536611E-1,0E0,0E0,0E0],"parents":[2147483647,0,0,1,1,2,2,5,5],"right_children":[2,4,6,-1,-1,8,-1,-1,-1],"split_conditions":[7.9605854E-1,2.328386E1,1.5E0,-0E0,2.2248583E-2,2.5E0,-0E0,-0E0,-2.3018898E-2],"split_indices":[4,2,7,0,0,6,0,0,0],"split_type":[0,0,0,0,0,0,0,0,0],"sum_hessian":[2.029557E1,9.905694E0,1.0389876E1,2.0568342E0,7.8488593E0,8.738926E0,1.6509501E0,1.3622407E0,7.3766856E0],"tree_param":{"num_deleted":"0","num_feature":"12","num_nodes":"9","size_leaf_vector":"0"}},{"base_weights":[-0E0,-2.9007718E-1,2.6905066E-1,-7.0375702E-3,4.7335875E-1,-0E0,-1.4279881E-1,5.005648E-1,-0E0,-0E0,3.946515E-2,-1.7475227E-1,-0E0],"categories":[],"categories_nodes":[],"categories_segments":[],"categories_sizes":[],"default_left":[1,0,1,1,1,1,1,0,0,0,0,0,0],"id":40,"left_children":[1,-1,3,5,7,9,11,-1,-1,-1,-1,-1,-1],"loss_changes":[3.1918516E0,0E0,2.3765702E0,2.709046E-1,1.3558722E-1,1.8050082E-2,9.86841E-2,0E0,0E0,0E0,0E0,0E0,0E0],"parents":[2147483647,0,0,2,2,3,3,4,4,5,5,6,6],"right_children":[2,-1,4,6,8,10,12,-1,-1,-1,-1,-1,-1],"split_conditions":[8.15E-2,-1.4503859E-2,2.4429066E1,6.426636E-1,1.0126841E0,4.4449997E0,1.59375E1,2.5028242E-2,-0E0,-0E0,1.9732576E-3,-8.737613E-3,-0E0],"split_indices":[8,0,2,4,4,9,10,0,0,0,0,0,0],"split_type":[0,0,0,0,0,0,0,0,0,0,0,0,0],"sum_hessian":[2.1426886E1,6.419115E0,1.5007771E1,6.325847E0,8.681923E0,3.0010228E0,3.3248246E0,7.2474823E0,1.4344407E0,1.4118713E0,1.5891514E0,2.1289206E0,1.1959041E0],"tree_param":{"num_deleted":"0","num_feature":"12","num_nodes":"13","size_leaf_vector":"0"}},{"base_weights":[-0E0,2.3955975E-1,-3.658267E-1,-0E0,3.6094904E-1,-3.920921E-1,-0E0,2.9645026E-2,-8.256619E-2,-0E0,-1.1205227E-1],"categories":[],"categories_nodes":[],"categories_segments":[],"categories_sizes":[],"default_left":[1,1,1,1,0,0,0,0,1,0,0],"id":41,"left_children":[1,3,5,7,-1,-1,-1,-1,9,-1,-1],"loss_changes":[3.8008587E0,9.422052E-1,8.578372E-2,1.0171544E-1,0E0,0E0,0E0,0E0,6.158469E-2,0E0,0E0],"parents":[2147483647,0,0,1,1,2,2,3,3,8,8],"right_children":[2,4,6,8,-1,-1,-1,-1,10,-1,-1],"split_conditions":[8.862499E-1,2.4408255E1,2.8815624E1,9.6499994E-2,1.8047452E-2,-1.9604607E-2,-0E0,1.4822513E-3,5E-1,-0E0,-5.6026136E-3],"split_indices":[4,2,2,8,0,0,0,0,0,0,0],"split_type":[0,0,0,0,0,0,0,0,0,0,0],"sum_hessian":[2.1758003E1,1.3385315E1,8.372689E0,5.852398E0,7.5329165E0,6.551632E0,1.8210576E0,2.5497684E0,3.3026297E0,1.1749967E0,2.127633E0],"tree_param":{"num_deleted":"0","num_feature":"12","num_nodes":"11","size_leaf_vector":"0"}},{"base_weights":[-0E0,-3.4101033E-1,1.9541512E-1,-3.6739326E-1,-0E0,-0E0,3.2363942E-1,4.1931093E-2,-9.5799804E-2,-2.3152663E-1,-0E0],"categories":[],"categories_nodes":[],"categories_segments":[],"categories_sizes":[],"default_left":[1,1,1,0,0,1,0,0,1,0,0],"id":42,"left_children":[1,3,5,-1,-1,7,-1,-1,9,-1,-1],"loss_changes":[2.8440824E0,1.567787E-1,8.3921677E-1,0E0,0E0,1.5110038E-1,0E0,0E0,5.6734854E-1,0E0,0E0],"parents":[2147483647,0,0,1,1,2,2,5,5,8,8],"right_children":[2,4,6,-1,-1,8,-1,-1,10,-1,-1],"split_conditions":[8.15E-2,2.5E0,2.5514046E1,-1.8369664E-2,-0E0,5E-1,1.6181972E-2,2.0965547E-3,4.5E0,-1.1576331E-2,-0E0],"split_indices":[8,3,2,0,0,0,0,0,3,0,0],"split_type":[0,0,0,0,0,0,0,0,0,0,0],"sum_hessian":[1.9705729E1,7.0015445E0,1.2704184E1,5.808931E0,1.1926136E0,6.4144897E0,6.289694E0,2.3084707E0,4.106019E0,2.9990392E0,1.1069798E0],"tree_param":{"num_deleted":"0","num_feature":"12","num_nodes":"11","size_leaf_vector":"0"}},{"base_weights":[-0E0,-3.2689363E-1,2.6278633E-1,-0E0,-3.390365E-1,3.7331775E-1,-0E0,-0E0,4.3356165E-1],"categories":[],"categories_nodes":[],"categories_segments":[],"categories_sizes":[],"default_left":[1,1,1,0,0,1,0,0,0],"id":43,"left_children":[1,3,5,-1,-1,7,-1,-1,-1],"loss_changes":[3.4790998E0,8.3909035E-3,1.3710197E0,0E0,0E0,6.4242005E-1,0E0,0E0,0E0],"parents":[2147483647,0,0,1,1,2,2,5,5],"right_children":[2,4,6,-1,-1,8,-1,-1,-1],"split_conditions":[8.050001E-2,2.4325E0,1.0351385E0,-0E0,-1.6951825E-2,5E-1,-0E0,-0E0,2.1678083E-2],"split_indices":[8,9,4,0,0,7,0,0,0],"split_type":[0,0,0,0,0,0,0,0,0],"sum_hessian":[2.0735102E1,7.61959E0,1.3115512E1,1.1665169E0,6.453073E0,1.1291398E1,1.8241134E0,2.0882795E0,9.203119E0],"tree_param":{"num_deleted":"0","num_feature":"12","num_nodes":"9","size_leaf_vector":"0"}},{"base_weights":[4.4158198E-2,-2.9856244E-1,3.2861853E-1,-0E0,4.637268E-1,9.285649E-2,-7.875669E-2,-0E0,-1.4598621E-1],"categories":[],"categories_nodes":[],"categories_segments":[],"categories_sizes":[],"default_left":[1,0,1,1,0,0,1,0,0],"id":44,"left_children":[1,-1,3,5,-1,-1,7,-1,-1],"loss_changes":[4.0523286E0,0E0,1.0906873E0,1.999065E-1,0E0,0E0,1.8657312E-1,0E0,0E0],"parents":[2147483647,0,0,2,2,3,3,6,6],"right_children":[2,-1,4,6,-1,-1,8,-1,-1],"split_conditions":[7.85E-2,-1.4928122E-2,2.4429066E1,9.6499994E-2,2.3186339E-2,4.6428246E-3,2.1144064E1,-0E0,-7.299311E-3],"split_indices":[8,0,2,8,0,0,2,0,0],"split_type":[0,0,0,0,0,0,0,0,0],"sum_hessian":[2.0885954E1,6.059183E0,1.4826771E1,7.287292E0,7.539479E0,2.6684206E0,4.6188717E0,1.6098316E0,3.0090399E0],"tree_param":{"num_deleted":"0","num_feature":"12","num_nodes":"9","size_leaf_vector":"0"}},{"base_weights":[-0E0,2.2613223E-1,-3.9939386E-1,3.011962E-1,-0E0,-0E0,-4.1792437E-1,-0E0,3.2944793E-1],"categories":[],"categories_nodes":[],"categories_segments":[],"categories_sizes":[],"default_left":[1,1,1,1,0,0,0,0,0],"id":45,"left_children":[1,3,5,7,-1,-1,-1,-1,-1],"loss_changes":[4.0624228E0,6.9696987E-1,6.3220024E-2,5.9702635E-2,0E0,0E0,0E0,0E0,0E0],"parents":[2147483647,0,0,1,1,2,2,3,3],"right_children":[2,4,6,8,-1,-1,-1,-1,-1],"split_conditions":[8.6768305E-1,5E-1,8.7824154E-1,4.5981932E-1,-0E0,-0E0,-2.0896219E-2,-0E0,1.6472397E-2],"split_indices":[4,11,4,4,0,0,0,0,0],"split_type":[0,0,0,0,0,0,0,0,0],"sum_hessian":[2.1167309E1,1.310765E1,8.05966E0,1.0707841E1,2.399809E0,1.2040448E0,6.855615E0,2.8492362E0,7.8586044E0],"tree_param":{"num_deleted":"0","num_feature":"12","num_nodes":"9","size_leaf_vector":"0"}},{"base_weights":[-0E0,2.880329E-1,-3.3708966E-1,-0E0,3.6856678E-1,-3.7596387E-1,-0E0],"categories":[],"categories_nodes":[],"categories_segments":[],"categories_sizes":[],"default_left":[1,1,1,0,0,0,0],"id":46,"left_children":[1,3,5,-1,-1,-1,-1],"loss_changes":[3.8584182E0,7.915245E-1,2.7842796E-1,0E0,0E0,0E0,0E0],"parents":[2147483647,0,0,1,1,2,2],"right_children":[2,4,6,-1,-1,-1,-1],"split_conditions":[5E-1,1.1844999E1,4.207E0,-0E0,1.8428339E-2,-1.8798193E-2,-0E0],"split_indices":[11,5,9,0,0,0,0],"split_type":[0,0,0,0,0,0,0],"sum_hessian":[2.0227732E1,1.323827E1,6.989463E0,3.219056E0,1.0019214E1,5.6275144E0,1.3619486E0],"tree_param":{"num_deleted":"0","num_feature":"12","num_nodes":"7","size_leaf_vector":"0"}},{"base_weights":[-0E0,-2.1561371E-1,2.8320533E-1,-0E0,-3.659907E-1,-0E0,3.049032E-1,-1.7305022E-2,1.0113323E-1,1.8462212E-1,-0E0],"categories":[],"categories_nodes":[],"categories_segments":[],"categories_sizes":[],"default_left":[1,1,1,1,0,0,0,0,1,0,0],"id":47,"left_children":[1,3,5,7,-1,-1,-1,-1,9,-1,-1],"loss_changes":[2.4219666E0,1.2805852E0,9.980726E-2,1.586618E-1,0E0,0E0,0E0,0E0,3.132463E-1,0E0,0E0],"parents":[2147483647,0,0,1,1,2,2,3,3,8,8],"right_children":[2,4,6,8,-1,-1,-1,-1,10,-1,-1],"split_conditions":[1.5E0,7.9605854E-1,2.905E0,5.0680655E-1,-1.8299535E-2,-0E0,1.5245161E-2,-8.652511E-4,5E-1,9.231106E-3,-0E0],"split_indices":[7,4,9,4,0,0,0,0,11,0,0],"split_type":[0,0,0,0,0,0,0,0,0,0,0],"sum_hessian":[2.0427288E1,1.4336065E1,6.091223E0,6.3296013E0,8.006463E0,1.1351264E0,4.9560966E0,1.1432642E0,5.1863375E0,3.747002E0,1.4393356E0],"tree_param":{"num_deleted":"0","num_feature":"12","num_nodes":"11","size_leaf_vector":"0"}},{"base_weights":[-0E0,2.1194479E-1,-3.1967896E-1,-0E0,3.7945127E-1,-0E0,-3.5616446E-1,8.122054E-2,-1.07486226E-1,-1.4573474E-1,-0E0],"categories":[],"categories_nodes":[],"categories_segments":[],"categories_sizes":[],"default_left":[1,1,1,1,0,0,0,0,1,0,0],"id":48,"left_children":[1,3,5,7,-1,-1,-1,-1,9,-1,-1],"loss_changes":[2.7757888E0,1.0941832E0,2.633134E-1,2.664007E-1,0E0,0E0,0E0,0E0,1.3295E-1,0E0,0E0],"parents":[2147483647,0,0,1,1,2,2,3,3,8,8],"right_children":[2,4,6,8,-1,-1,-1,-1,10,-1,-1],"split_conditions":[5E-1,2.7666351E1,7.157065E-1,2.1262976E1,1.8972564E-2,-0E0,-1.7808223E-2,4.061027E-3,6.0655003E0,-7.286737E-3,-0E0],"split_indices":[11,2,4,2,0,0,0,0,9,0,0],"split_type":[0,0,0,0,0,0,0,0,0,0,0],"sum_hessian":[2.017451E1,1.3218733E1,6.9557757E0,8.375464E0,4.843269E0,1.2202317E0,5.735544E0,2.393641E0,5.9818234E0,4.953548E0,1.0282755E0],"tree_param":{"num_deleted":"0","num_feature":"12","num_nodes":"11","size_leaf_vector":"0"}},{"base_weights":[-0E0,-3.7139586E-1,2.8474626E-1,-0E0,3.6802635E-1,6.323497E-4,-5.484908E-3,-0E0,-3.4639932E-2],"categories":[],"categories_nodes":[],"categories_segments":[],"categories_sizes":[],"default_left":[1,0,1,1,0,0,1,0,0],"id":49,"left_children":[1,-1,3,5,-1,-1,7,-1,-1],"loss_changes":[4.2826595E0,0E0,5.8738303E-1,4.183037E-4,0E0,0E0,1.32688945E-2,0E0,0E0],"parents":[2147483647,0,0,2,2,3,3,6,6],"right_children":[2,-1,4,6,-1,-1,8,-1,-1],"split_conditions":[8.15E-2,-1.8569794E-2,1.3955E1,3.9274998E0,1.8401317E-2,3.1617485E-5,1.5E0,-0E0,-1.7319967E-3],"split_indices":[8,0,5,9,0,0,3,0,0],"split_type":[0,0,0,0,0,0,0,0,0],"sum_hessian":[2.0821802E1,7.1105366E0,1.3711266E1,5.180258E0,8.531008E0,1.4277247E0,3.7525332E0,2.3496292E0,1.4029042E0],"tree_param":{"num_deleted":"0","num_feature":"12","num_nodes":"9","size_leaf_vector":"0"}}]},"name":"gbtree"},"learner_model_param":{"base_score":"5E-1","boost_from_average":"1","num_class":"0","num_feature":"12","num_target":"1"},"objective":{"name":"binary:logistic","reg_loss_param":{"scale_pos_weight":"1"}}},"version":[1,7,7]}